-1.08274 3.16726 -0.857597 2.44307 -0.583239 -1.56496 0.206224 -3.27385 2.86744 -0.255898 -1.64877 -1.44027 -3.28193 0.54434 1.4245 -2.04492 0.449218 0.461392 -0.587923 -1.09649 -0.794619 -0.328739 -2.62747 3.04217 -1.23333 -2.43639 1.08164 -1.50205 -2.98386 2.50329 2.89302 -3.4156 -2.76038 -1.14905 -3.28146 -1.01947 -1.40699 1.57692 1.45079 -2.52936 0.917157 2.06623 1.84241 -2.86237 -2.11468 -2.23463 -2.91387 -1.34993 -2.52722 2.02256 1.24452 2.88475 0.89024 -3.18595 -2.08076 1.52516 -0.181063 -1.49672 0.159675 3.34974 -2.72475 0.282048 0.734599 0.81288 -0.630958 2.07049 -2.37748 -1.02697 -2.41691 2.10875 -2.92823 0.495633 -0.225138 -1.63265 -2.85137 -2.65931 0.066906 0.714765 1.07335 0.563304 0.863083 -0.0797854 -0.589033 -3.00828 1.81969 0.503606 1.75094 -0.857228 2.99148 -2.36121 -0.472518 -0.919006 0.9619 1.34087 -3.16146 0.239525 1.03799 0.265048 -1.42604 -1.13195 1.39242 -0.992725 -2.62475 1.63506 0.854661 -0.969628 -1.99926 -1.85289 -0.0228827 1.49643 -1.59798 -0.208775 -2.05537 -0.762992 0.247144 -3.2273 0.0325261 1.27877 -2.57199 -1.29552 -3.37506 -1.22654 -0.655168 1.33508 -2.77337 -0.362138 1.06868 0.00907319 1.04743 -3.09204 -2.64919 2.94668 0.0686657 -1.86538 -0.102356 -2.52948 -1.9198 1.85352 -3.34377 3.26035 -2.52084 -3.48796 0.69297 -3.21199 0.765044 -3.02915 -2.14877 2.62956 3.16603 -1.32801 0.657657 -3.24819 -0.620653 -1.65487 -1.27495 3.10989 -1.53055 0.429343 -3.04998 -0.462009 -2.91135 -0.258727 2.48059 0.291442 -0.391501 1.90662 1.97288 0.140343 3.25953 3.07538 3.23945 1.36472 2.24335 0.036422 -1.88021 2.15439 0.530151 2.88921 -1.81982 -1.62422 1.29937 -3.25262 -1.67804 -2.31706 1.76687 -2.46742 1.13315 2.79192 2.16504 -1.63937 -3.29456 -1.83027 2.72938 3.33785 -0.893713 3.27118 1.51761 -1.92449 -2.95284 -1.17614 -2.70802 2.63374 0.561718 0.140345 1.17455 -3.22744 -2.09075 1.33981 -2.75911 -2.37873 -2.61056 2.39014 1.75141 -0.319934 1.57871 -2.3086 -1.70755 -1.04709 3.35828 1.4954 2.99911 -2.00301 -2.77999 -2.93973 0.976372 -2.23764 -0.492426 0.754003 1.85882 -3.35282 2.65433 0.666409 0.149105 3.1858 2.9661 -0.988277 2.40759 -0.52718 2.87106 0.268804 -1.76142 -0.383975 0.0666382 0.998697 2.30581 1.84256 3.04538 -2.34321 0.729984 -3.17503 -3.19431 -2.59798 0.215842 -0.259362 -3.11217 3.37759 -2.96596 0.219494 1.48018 -1.43803 -2.05397 -1.7205 -2.22815 1.30149 2.615 3.16819 -1.61572 -0.853805 1.93052 1.44803 1.65147 -2.91458 -1.58709 0.647487 0.86136 3.36303 1.83976 -1.01846 -2.18434 -0.0981409 3.24391 -0.0908853 2.01122 3.24809 -2.12478 -1.90486 -2.46249 -1.36372 0.981451 0.159735 0.594415 1.26983 -1.58284 3.05791 1.09447 -1.5546 2.89709 -2.16822 -2.63853 -1.7815 3.11514 -1.52737 -1.51363 -2.6326 1.41445 -0.813455 2.78214 -0.901383 0.830107 1.18002 0.0352706 2.69656 0.933747 -0.789472 -3.32914 -1.35224 2.77586 -1.49385 -2.29558 3.29322 3.46286 -2.16963 -2.61272 -0.0597121 0.0454681 1.88106 -0.526009 -2.97179 2.46921 1.56404 2.84149 -1.72097 2.30849 2.8863 -0.372884 -1.34781 3.23472 -2.99195 -3.17898 2.35208 0.851055 -3.28511 -1.77596 -2.83617 3.0382 -2.99566 -0.276642 -0.942536 -0.939055 -0.213932 -2.9965 -1.61084 -1.62497 1.65542 0.720612 -1.01127 1.22264 -2.92486 -0.0849381 0.205084 3.17341 1.98565 0.948657 -2.58784 3.32435 -3.2474 -0.900404 -2.09158 2.49389 0.365813 -0.698799 -1.23935 -2.21179 1.39751 -2.92458 1.95699 -1.26873 -2.58597 -3.35646 0.6905 -0.977401 2.57824 -1.74221 0.995318 -1.31936 0.472364 -2.72704 -0.450982 2.39143 -0.261773 -3.40692 0.979509 -2.59665 3.4493 -1.7816 -2.16522 1.01091 -1.21234 2.33284 -0.051358 3.5195 2.26432 2.29543 0.735304 1.07104 -2.93446 -3.06803 2.18085 0.616212 -1.12213 2.7197 -1.59571 -1.0349 2.9939 1.51531 0.0676156 0.0694434 -0.730055 1.48264 -3.44647 2.34155 3.40844 3.39197 0.684227 0.598033 -2.77176 -1.7243 -3.44583 -0.21187 -2.61378 2.54097 -3.19768 1.58801 -1.31148 -1.83963 2.07654 0.797048 2.75759 -0.398974 -1.03219 -1.73338 0.83289 1.24111 2.76388 -0.218094 -3.22835 1.17025 1.74106 -3.47347 2.22593 -0.904488 -2.60004 2.65685 -2.26476 -1.67907 -0.635892 -0.125406 3.47185 -2.21076 -2.85332 -1.08318 -1.63107 2.1422 1.54054 -2.95963 0.463195 0.988856 2.08836 1.36997 3.22511 0.646638 -2.96032 -1.84172 -2.23007 -2.06143 -3.06357 0.735944 -1.96426 1.13469 1.41539 0.176267 -1.05408 -1.39179 1.26954 -0.378809 2.29762 1.3605 -1.8556 1.12585 -0.241893 2.26786 -2.795 -1.0262 2.33268 1.30021 2.87597 2.10521 2.57753 3.4878 2.72101 1.28635 -1.46075 -3.20674 -2.29476 0.451041 0.472779 2.39638 2.14501 -1.12231 -2.15294 -1.15224 -0.293367 -1.84702 3.24452 -3.1925 -2.2385 0.448334 0.14846 0.102227 0.982068 1.5109 3.23165 -1.18349 0.368155 2.79832 -1.22829 0.477693 -0.201363 -0.949938 -0.714505 2.36663 -1.66783 3.19987 2.9224 -0.70281 0.278741 -1.77801 2.56157 1.82553 1.87305 -1.85717 -1.54139 -1.11401 -1.18042 1.71165 2.78101 -1.36068 3.38128 -2.67105 0.900198 -3.08883 -2.07396 -1.11488 0.907695 -0.537222 -0.526941 -2.34014 1.26373 0.348868 2.05975 0.884356 2.58992 -2.23122 3.37298 1.70068 1.35231 -1.85617 -2.73746 -1.07718 -2.38267 -2.88848 -0.520372 1.54135 1.75349 -0.736884 -0.36413 1.63269 -0.396648 -1.90758 1.76739 1.03246 1.45708 3.05318 2.38344 0.846031 -2.26937 -0.715433 -1.99915 1.1125 0.596807 -0.501653 0.0372962 -0.489168 2.42133 -0.767886 2.54971 -0.280819 -1.20558 -1.19636 -0.465638 -1.34926 2.34659 -2.03049 0.868417 1.05123 1.58239 -2.4239 0.118457 2.06675 -1.83969 -3.21621 -1.16069 1.3822 3.35519 2.48271 -1.13409 3.1011 -2.4751 -0.736207 1.34702 -1.24301 -3.27567 1.01349 -3.08077 2.45153 -2.40899 2.3233 2.17967 -2.42026 -2.71919 2.39248 1.84052 0.359281 -0.117129 -0.602345 2.83531 -0.885804 -2.02412 -2.51374 1.46846 -3.0429 -0.0959331 0.478603 -2.03684 0.768182 0.892829 -1.71733 1.58366 -0.00723858 3.13928 3.18848 -2.45242 1.60705 -2.43 -2.57376 -2.02947 -0.787643 0.518839 0.926043 0.74358 -0.331249 -1.29026 0.848586 0.612675 -1.09144 1.46593 -2.72931 -1.33802 -1.40928 -1.42811 0.716921 2.64917 -2.13003 2.82842 2.16635 1.205 1.70007 1.05776 1.8831 -3.39264 1.93237 -0.236273 1.79727 1.98552 -1.85958 -0.185003 3.39627 0.624847 -2.49757 1.54823 0.0265848 -0.161196 -1.75507 0.771004 -2.89274 3.11261 -2.02748 2.47463 -1.44321 0.0114777 -0.857789 2.41587 3.06948 2.7613 -3.00061 -3.22169 0.0666868 1.24951 1.10482 1.96391 2.68297 1.81271 1.43666 1.53585 1.74339 2.696 -1.75679 -3.34718 1.15894 3.38639 3.41897 -0.183014 -2.99243 -1.80894 -3.45303 -1.0949 1.84857 0.350196 -0.20262 2.6616 3.416 -1.04707 3.47586 2.99455 -3.49965 1.79467 2.48908 3.4032 3.41364 -2.57887 -1.98459 -2.50455 3.08552 0.117336 -1.23197 -1.73362 1.13904 2.81864 0.173565 2.25091 -1.69404 -0.0912924 -2.52394 -2.66479 1.70663 -2.30425 1.91743 -0.524385 0.663538 1.2905 -3.41927 -3.04374 -2.30514 -2.17321 1.17556 2.65192 1.46761 0.0529434 2.7377 -2.92913 -0.961399 -1.13555 3.04218 0.881487 -2.30096 2.10136 -1.69627 -3.27854 0.507484 -2.98011 2.87483 -1.05276 1.37524 -1.334 
